<?xml version="1.0"?>
<opencv_storage>
<opencv_ml_svm>
  <format>3</format>
  <svmType>C_SVC</svmType>
  <kernel>
    <type>LINEAR</type></kernel>
  <C>1.</C>
  <term_criteria><iterations>100</iterations></term_criteria>
  <var_count>136</var_count>
  <class_count>3</class_count>
  <class_labels type_id="opencv-matrix">
    <rows>3</rows>
    <cols>1</cols>
    <dt>i</dt>
    <data>
      100 150 200</data></class_labels>
  <sv_total>3</sv_total>
  <support_vectors>
    <_>
      2.42851116e-03 -3.58513393e-03 2.70270789e-03 -5.66369062e-03
      3.47398478e-03 -7.68243847e-03 3.40827159e-03 -9.15373676e-03
      1.87600410e-04 -6.72400184e-03 -5.23548480e-03 -3.14542558e-03
      -4.78597963e-03 -4.18842956e-03 -6.12174626e-03 -6.92587718e-03
      -7.07243523e-03 -8.39356612e-03 -8.23347922e-03 -7.85103440e-03
      -1.05850352e-02 -5.00887679e-03 -8.67596082e-03 -2.03998690e-03
      -8.22030474e-03 4.00529942e-04 -9.40842740e-03 5.94762445e-04
      -7.81904254e-03 -6.83204096e-04 -5.76516846e-03 -2.19061360e-04
      -4.38456936e-03 2.37623113e-03 2.58850586e-03 -5.92285162e-03
      3.57618486e-03 -6.18410530e-03 3.67842428e-03 -7.20507000e-03
      5.83389495e-03 -7.86003750e-03 7.29397358e-03 -8.74007586e-03
      -2.12909514e-03 -7.74115603e-03 -1.92637776e-03 -8.03560577e-03
      -2.29105959e-03 -8.64205323e-03 -1.06689788e-03 -8.07280559e-03
      6.02052896e-04 -7.86439236e-03 2.17015645e-03 -4.39337175e-03
      2.47238460e-03 -7.80934328e-03 3.45565868e-03 -1.17773544e-02
      2.16723699e-03 -1.52717354e-02 6.34219171e-03 -2.04480207e-03
      4.78208857e-03 -5.42172696e-03 3.21743893e-03 -8.05163104e-03
      1.30222295e-03 -6.77319337e-03 -1.05711329e-03 -5.01445122e-03
      3.01143783e-03 1.02462899e-03 1.59177301e-03 6.71143876e-04
      2.44211429e-03 -9.71199006e-06 2.05929135e-03 -2.39161402e-03
      3.28188716e-03 2.18148110e-03 2.73101218e-03 3.25917266e-03
      3.87732568e-03 -2.52386276e-03 3.98740638e-03 -8.03447096e-04
      4.04850254e-03 -6.50209957e-04 3.26240179e-03 -7.87880039e-04
      3.89154791e-03 1.46257924e-03 2.99139298e-03 4.20239841e-04
      1.07485149e-02 2.07524542e-02 1.17617808e-02 1.21325320e-02
      7.89500400e-03 6.39417721e-03 5.79296798e-03 5.49023971e-03
      2.74851313e-03 4.89264168e-03 -3.51867126e-03 6.64600637e-03
      -9.07977670e-03 1.04327537e-02 -2.06187926e-03 1.70224218e-03
      3.69544630e-03 4.33634676e-04 6.94570784e-03 1.92809443e-03
      9.21688601e-03 4.56705643e-03 1.15182474e-02 1.14737581e-02
      1.17901843e-02 1.89482793e-02 7.00517185e-03 1.14384638e-02
      5.66542009e-03 8.36881716e-03 1.79709715e-03 7.66362762e-03
      -9.12472885e-03 9.12502129e-03 3.26742860e-03 2.16375935e-04
      6.33330736e-03 1.97012676e-03 9.37759131e-03 2.86418968e-03</_>
    <_>
      8.83231778e-03 -3.00646992e-03 6.55030413e-03 -6.33410318e-03
      1.30873465e-03 -1.15322135e-02 1.87622884e-03 -1.27036897e-02
      -4.41342941e-04 -1.11815203e-02 -7.56583293e-04 -1.03772376e-02
      1.17518567e-03 -1.34325074e-02 1.21058302e-03 -1.58217978e-02
      -2.94291438e-03 -1.60953999e-02 -7.05086906e-03 -1.95366312e-02
      -9.61251743e-03 -2.05855425e-02 -7.97565375e-03 -1.84896663e-02
      -9.52058565e-03 -1.44661861e-02 -9.20696743e-03 -1.02702370e-02
      -5.91563201e-03 -8.13868456e-03 -2.19737040e-03 -5.19715948e-03
      1.90463313e-03 -3.78823513e-03 1.08718425e-02 -1.68625899e-02
      1.15848174e-02 -1.05601605e-02 8.19741376e-03 -4.85708937e-03
      4.26400825e-03 -7.51644606e-04 -1.47630088e-03 4.33287397e-03
      6.95746578e-03 3.88864824e-03 2.80741230e-03 2.09545996e-03
      -1.68476941e-03 -3.02955112e-03 -3.22616869e-03 -7.61561794e-03
      -1.65949471e-03 -1.41159706e-02 3.47985444e-03 7.15058856e-03
      3.56022152e-03 6.98883552e-03 2.47362303e-03 7.53707020e-03
      1.19842985e-03 7.37533625e-03 9.69541632e-03 9.94065497e-03
      7.63302529e-03 6.37004524e-03 3.10703134e-03 3.03801126e-03
      -1.66947814e-03 5.12781041e-03 -3.65216262e-03 6.23926986e-03
      8.74635763e-03 -6.98919524e-04 8.12356733e-03 2.88448093e-04
      4.74759238e-03 2.29460699e-03 1.72901084e-03 3.33559001e-03
      3.43495887e-03 1.67546025e-03 6.94959611e-03 3.99579818e-04
      7.35141709e-03 -7.53302957e-05 1.10365066e-03 -8.02523282e-04
      -2.73239985e-03 -3.95467877e-03 -4.99670301e-03 -5.86779881e-03
      -1.91853091e-03 -4.98764403e-03 3.26156430e-03 -2.87779770e-03
      7.49274995e-03 -1.58153626e-03 7.04835262e-03 1.13788666e-02
      4.98606218e-03 1.42458268e-02 1.93763187e-03 1.32754445e-02
      -2.37840461e-03 1.41869700e-02 -5.01410011e-03 7.97297992e-03
      -7.33357202e-03 -3.16234818e-03 -6.15701731e-03 7.08483276e-04
      -2.34557525e-03 3.65470536e-03 7.32400367e-05 4.70345886e-03
      3.21777421e-03 6.14805706e-03 6.72610011e-03 4.43959655e-03
      4.45964048e-03 1.89341384e-03 5.42963669e-03 1.20515833e-02
      2.02688831e-03 1.03975311e-02 -2.51641404e-03 9.45067313e-03
      -6.27810461e-03 -3.12013668e-04 -2.31962348e-03 7.65410671e-03
      1.53042696e-04 8.70286115e-03 5.46436710e-03 8.48504901e-03</_>
    <_>
      1.03213666e-02 -1.26953097e-03 7.78903160e-03 -2.89968634e-03
      4.32054326e-03 -4.72610351e-03 2.99122185e-03 -5.62741049e-03
      1.46048446e-03 -4.08301270e-03 2.27951119e-03 -3.17765865e-03
      1.97776608e-04 -1.06288190e-03 1.89088471e-03 1.13442214e-03
      7.85728625e-04 2.67090835e-03 1.81832770e-03 1.04512565e-03
      6.55178912e-03 -6.80776429e-04 9.15871188e-03 -3.73981125e-03
      9.56629030e-03 -5.11639658e-03 1.05205551e-02 -4.42887517e-03
      1.12625426e-02 -3.73658305e-03 1.19208852e-02 -4.39293822e-03
      1.48049472e-02 -8.79261922e-03 4.84938640e-03 -2.03871494e-03
      2.13886029e-03 -8.36334715e-04 -2.66430638e-04 1.86355796e-03
      -4.28371411e-03 5.20297559e-03 -9.47706401e-03 1.03708906e-02
      4.03884100e-03 9.17681772e-03 2.58236518e-03 7.11939158e-03
      1.80143456e-03 4.72986745e-03 1.83250417e-03 2.71117501e-03
      3.40663968e-03 -6.51859620e-04 -2.34099664e-03 7.97836017e-03
      -2.69440701e-03 1.14319064e-02 -3.79945664e-03 1.53092947e-02
      -4.36746562e-03 1.90796442e-02 1.71195762e-03 9.41615645e-03
      7.49228522e-04 8.25524144e-03 -1.74048007e-03 7.68520171e-03
      -3.59738641e-03 7.63537036e-03 -1.86614529e-03 7.26873614e-03
      5.75794186e-03 6.78500801e-05 5.49391517e-03 1.15408376e-03
      1.92953774e-03 1.56691193e-03 2.19745096e-03 4.99560311e-03
      1.25448359e-03 -1.18239166e-03 4.65187524e-03 -1.95965520e-03
      2.03504506e-03 6.85616105e-04 -1.52397761e-03 -2.15839711e-03
      -2.30595795e-03 -4.63583693e-03 -7.60286697e-04 -6.17495505e-03
      -1.49967463e-03 -7.59975892e-03 1.10328000e-03 -5.13415178e-03
      -6.87474618e-03 -1.89897865e-02 -8.19941703e-03 -4.93540755e-03
      -5.32816863e-03 1.38084975e-03 -4.04551486e-03 6.90238958e-04
      -3.84317315e-03 2.49775033e-03 2.00145738e-03 -3.78809660e-03
      7.10817426e-03 -1.14708589e-02 -9.42037499e-04 1.13682228e-03
      -5.85618941e-03 5.67009626e-03 -7.29400758e-03 5.60504152e-03
      -8.98920465e-03 3.71116749e-03 -9.13185347e-03 -4.87037189e-03
      -9.66062862e-03 -1.59916226e-02 -4.24786005e-03 -6.60973741e-03
      -3.87850986e-03 -4.75785509e-03 -3.99299012e-03 -4.96762618e-03
      8.41271970e-03 -8.87287594e-03 -5.53372735e-03 9.81378742e-03
      -6.66657416e-03 9.21730138e-03 -7.55550526e-03 7.56364083e-03</_></support_vectors>
  <uncompressed_sv_total>14</uncompressed_sv_total>
  <uncompressed_support_vectors>
    <_>
      2.44155846e+01 8.93506546e+01 2.49350662e+01 1.09090912e+02
      2.70129871e+01 1.28831177e+02 3.37662354e+01 1.48051956e+02
      4.20779228e+01 1.66233765e+02 5.61038971e+01 1.83376633e+02
      7.27272720e+01 1.95844162e+02 8.98701324e+01 2.06753250e+02
      1.09610390e+02 2.09350647e+02 1.29870132e+02 2.04675323e+02
      1.48051956e+02 1.91688324e+02 1.64155853e+02 1.77142868e+02
      1.75584427e+02 1.58961044e+02 1.82337662e+02 1.37662338e+02
      1.85974030e+02 1.16363640e+02 1.88051956e+02 9.40259781e+01
      1.87012985e+02 7.22077942e+01 3.79220772e+01 6.07792206e+01
      4.36363640e+01 4.93506508e+01 5.55844154e+01 4.51948051e+01
      6.90909119e+01 4.62337685e+01 8.20779266e+01 5.19480515e+01
      1.11688316e+02 4.88311691e+01 1.25194809e+02 4.10389633e+01
      1.39740265e+02 3.74025993e+01 1.54805191e+02 4.05194817e+01
      1.64675323e+02 5.19480515e+01 9.76623383e+01 7.63636398e+01
      9.81818237e+01 9.19480515e+01 9.87013016e+01 1.06493507e+02
      9.92207794e+01 1.22077927e+02 8.67532501e+01 1.34545456e+02
      9.45454559e+01 1.36623383e+02 1.02337662e+02 1.38181824e+02
      1.10649353e+02 1.35064941e+02 1.18441559e+02 1.31948059e+02
      5.35064964e+01 8.51948090e+01 6.02597427e+01 8.20779266e+01
      6.90909119e+01 8.20779266e+01 7.84415588e+01 8.46753235e+01
      6.96103897e+01 8.77922134e+01 6.07792206e+01 8.83116913e+01
      1.22077927e+02 8.05194855e+01 1.29870132e+02 7.58441544e+01
      1.38701309e+02 7.42857132e+01 1.47532471e+02 7.63636398e+01
      1.40259750e+02 80. 1.30909088e+02 8.15584412e+01 7.84415588e+01
      1.62597412e+02 8.77922134e+01 1.57922089e+02 9.61038971e+01
      1.54805191e+02 1.03896103e+02 1.56363647e+02 1.11688316e+02
      1.53766235e+02 1.22077927e+02 1.55844162e+02 1.33506500e+02
      1.58961044e+02 1.23116890e+02 1.67272736e+02 1.13766235e+02
      1.70909088e+02 1.05454552e+02 1.72467529e+02 9.66233826e+01
      1.71948059e+02 8.83116913e+01 1.69350647e+02 8.25974045e+01
      1.62597412e+02 9.66233826e+01 1.61038971e+02 1.04415588e+02
      1.62077927e+02 1.12207794e+02 1.60519485e+02 1.28311691e+02
      1.59480530e+02 1.12207794e+02 1.61038971e+02 1.04415588e+02
      1.62597412e+02 9.66233826e+01 1.61558441e+02</_>
    <_>
      1.90735683e+01 6.86648483e+01 1.52588549e+01 8.93732986e+01
      1.30790186e+01 1.11171661e+02 1.47138958e+01 1.32970032e+02
      1.96185284e+01 1.54223434e+02 2.77929153e+01 1.75476837e+02
      3.97820168e+01 1.92370575e+02 5.39509544e+01 2.04904633e+02
      7.30245209e+01 2.10354218e+02 9.48228836e+01 2.10354218e+02
      1.16076294e+02 2.02179825e+02 1.35694824e+02 1.90735687e+02
      1.51498642e+02 1.74931870e+02 1.61852859e+02 1.56403259e+02
      1.70572205e+02 1.35694824e+02 1.77111710e+02 1.14441414e+02
      1.81471390e+02 9.37329712e+01 3.92370567e+01 4.68664856e+01
      4.85013618e+01 3.65122604e+01 6.32152557e+01 3.48773842e+01
      7.79291534e+01 3.97820168e+01 9.10081711e+01 4.95912781e+01
      1.17166206e+02 5.39509544e+01 1.31335144e+02 4.79564018e+01
      1.47138962e+02 4.68664856e+01 1.61307892e+02 5.34059944e+01
      1.67847412e+02 6.86648483e+01 9.91825562e+01 7.62942734e+01
      9.64577637e+01 9.10081711e+01 9.31880112e+01 1.05177109e+02
      8.93732986e+01 1.19891006e+02 7.13896408e+01 1.31335144e+02
      7.95640335e+01 1.34604904e+02 8.77384186e+01 1.37874649e+02
      9.75476837e+01 1.36784744e+02 1.07356949e+02 1.35694824e+02
      5.17711143e+01 7.35694809e+01 6.04904633e+01 7.19346008e+01
      6.97547684e+01 7.35694809e+01 7.84741135e+01 7.95640335e+01
      6.81198883e+01 8.01089935e+01 5.88555832e+01 7.84741135e+01
      1.22070839e+02 8.50136185e+01 1.32425064e+02 8.11989059e+01
      1.41689377e+02 8.22888260e+01 1.50408722e+02 8.61035385e+01
      1.41144409e+02 8.88283386e+01 1.30790192e+02 8.77384186e+01
      5.28610344e+01 1.55858307e+02 6.59400558e+01 1.54768387e+02
      7.68392334e+01 1.54223434e+02 8.50136185e+01 1.57493179e+02
      9.26430511e+01 1.56403259e+02 1.02452316e+02 1.59673019e+02
      1.15531334e+02 1.64577652e+02 1.00272476e+02 1.70027237e+02
      8.93732986e+01 1.72207077e+02 8.11989059e+01 1.72207077e+02
      7.19346008e+01 1.70027237e+02 6.26702995e+01 1.64577652e+02
      5.72207069e+01 1.56948227e+02 7.57493210e+01 1.60762939e+02
      8.44686661e+01 1.62942780e+02 9.15531311e+01 1.62942780e+02
      1.10081741e+02 1.64577652e+02 9.10081711e+01 1.62942780e+02
      8.33787460e+01 1.62942780e+02 7.46594009e+01 1.60762939e+02</_>
    <_>
      1.68618259e+01 9.18032761e+01 2.01405144e+01 1.11943794e+02
      2.48243561e+01 1.32084305e+02 3.04449654e+01 1.51756439e+02
      3.98126450e+01 1.70023422e+02 5.48009377e+01 1.85948471e+02
      7.35363007e+01 1.97189697e+02 9.36768188e+01 2.07025757e+02
      1.14754097e+02 2.07494141e+02 1.33957840e+02 2.00468384e+02
      1.48946136e+02 1.86416870e+02 1.61592514e+02 1.70960190e+02
      1.69555038e+02 1.51756439e+02 1.73770493e+02 1.31147537e+02
      1.75175644e+02 1.10070259e+02 1.75175644e+02 8.85245895e+01
      1.71896957e+02 6.74473038e+01 3.09133492e+01 6.74473038e+01
      3.65339584e+01 5.38641701e+01 4.96487122e+01 4.77751770e+01
      6.41686172e+01 4.77751770e+01 7.77517548e+01 5.29274025e+01
      1.06791573e+02 4.82435608e+01 1.18969559e+02 3.98126450e+01
      1.33021072e+02 3.51288071e+01 1.47540985e+02 3.79391098e+01
      1.56440277e+02 4.91803284e+01 9.46135864e+01 7.44730682e+01
      9.69555054e+01 9.03981247e+01 9.92974243e+01 1.05386414e+02
      1.01639343e+02 1.21311478e+02 8.71194382e+01 1.35362991e+02
      9.60187378e+01 1.36768158e+02 1.04449646e+02 1.37704926e+02
      1.12412178e+02 1.33957840e+02 1.19437943e+02 1.30210770e+02
      4.77751770e+01 8.66510544e+01 5.48009377e+01 8.14988327e+01
      6.41686172e+01 8.10304489e+01 7.40046844e+01 8.43091354e+01
      6.46370010e+01 8.85245895e+01 5.57377052e+01 8.94613571e+01
      1.15222481e+02 7.82201385e+01 1.23653397e+02 7.16627655e+01
      1.33021072e+02 6.93208466e+01 1.41920380e+02 7.25995331e+01
      1.34894608e+02 7.72833710e+01 1.25058548e+02 7.86885223e+01
      7.96252899e+01 1.64402817e+02 9.03981247e+01 1.59250580e+02
      9.88290405e+01 1.55035126e+02 1.07259956e+02 1.56440277e+02
      1.14285713e+02 1.53161591e+02 1.23185013e+02 1.54098358e+02
      1.34894608e+02 1.55971893e+02 1.25058548e+02 1.64871201e+02
      1.17096016e+02 1.69086655e+02 1.09601875e+02 1.71428574e+02
      1.01170959e+02 1.71428574e+02 9.18032761e+01 1.70023422e+02
      8.38407516e+01 1.63934433e+02 9.97658081e+01 1.61592514e+02
      1.08196724e+02 1.62060898e+02 1.15222481e+02 1.59718964e+02
      1.30679153e+02 1.56908661e+02 1.15690865e+02 1.59718964e+02
      1.08196724e+02 1.62060898e+02 9.97658081e+01 1.62060898e+02</_>
    <_>
      3.20224724e+01 7.80898895e+01 3.31460686e+01 9.71910095e+01
      3.65168533e+01 1.16853935e+02 3.93258438e+01 1.36516861e+02
      4.49438210e+01 1.56179779e+02 5.56179771e+01 1.75280899e+02
      7.02247238e+01 1.88764053e+02 8.70786514e+01 2.01123596e+02
      1.05617981e+02 2.03932587e+02 1.25280899e+02 200. 1.46067413e+02
      1.88764053e+02 1.65168549e+02 1.75280899e+02 1.79775284e+02
      1.56741577e+02 1.86516861e+02 1.35393265e+02 1.91011246e+02
      1.13483147e+02 1.95505615e+02 9.04494400e+01 1.97191010e+02
      6.74157333e+01 3.76404495e+01 5.95505638e+01 4.38202248e+01
      4.83146057e+01 5.56179771e+01 4.43820229e+01 6.91011276e+01
      4.60674171e+01 8.14606781e+01 5.16853943e+01 1.11797752e+02
      4.94382019e+01 1.26404495e+02 4.04494400e+01 1.43258423e+02
      3.70786514e+01 1.60112366e+02 4.04494400e+01 1.72471909e+02
      5.16853943e+01 9.71910095e+01 7.52808990e+01 9.66292114e+01
      9.15730362e+01 9.60674210e+01 1.07303375e+02 9.55056229e+01
      1.23595505e+02 8.37078629e+01 1.33707870e+02 9.10112381e+01
      1.35955063e+02 9.88764038e+01 1.38202255e+02 1.08426971e+02
      1.34831467e+02 1.17977531e+02 1.32022476e+02 5.28089905e+01
      8.25842743e+01 6.12359543e+01 8.03370819e+01 7.07865143e+01
      8.03370819e+01 8.08988800e+01 8.37078629e+01 7.07865143e+01
      8.53932571e+01 6.12359543e+01 8.59550552e+01 1.24719101e+02
      7.97752838e+01 1.35393265e+02 7.52808990e+01 1.45505615e+02
      7.41573029e+01 1.56741577e+02 7.58426971e+01 1.46629211e+02
      7.92134857e+01 1.35955063e+02 8.08988800e+01 7.64044952e+01
      1.58988770e+02 8.59550552e+01 1.55617981e+02 9.43820267e+01
      1.53370789e+02 1.01685394e+02 1.55617981e+02 1.09550560e+02
      1.53370789e+02 1.20224724e+02 1.54494385e+02 1.34831467e+02
      1.57303375e+02 1.21348320e+02 1.65730347e+02 1.10674156e+02
      1.69101120e+02 1.02247192e+02 1.70224716e+02 9.38202286e+01
      1.69101120e+02 8.53932571e+01 1.65730347e+02 8.08988800e+01
      1.58988770e+02 9.43820267e+01 1.59550568e+02 1.02247192e+02
      1.61235962e+02 1.10112358e+02 1.59550568e+02 1.29213486e+02
      1.57865173e+02 1.09550560e+02 1.60112366e+02 1.01685394e+02
      1.61797760e+02 9.38202286e+01 1.60112366e+02</_>
    <_>
      2.07084465e+01 8.50136185e+01 1.90735683e+01 1.05722069e+02
      1.68937321e+01 1.26975471e+02 1.90735683e+01 1.48228882e+02
      2.72479553e+01 1.67302444e+02 4.19618530e+01 1.83106262e+02
      5.94005432e+01 1.94550400e+02 7.73841934e+01 2.04359665e+02
      9.70027237e+01 2.07629425e+02 1.16621254e+02 2.04359665e+02
      1.34604904e+02 1.94005447e+02 1.50953674e+02 1.82561310e+02
      1.62942780e+02 1.66757492e+02 1.70572205e+02 1.48228882e+02
      1.76021790e+02 1.29155304e+02 1.79836502e+02 1.08991821e+02
      1.81471390e+02 8.99182510e+01 4.41416893e+01 5.34059944e+01
      5.23160744e+01 4.19618530e+01 6.59400558e+01 3.92370567e+01
      8.06539459e+01 4.19618530e+01 9.31880112e+01 5.06811981e+01
      1.19346046e+02 5.17711143e+01 1.32425064e+02 4.52316055e+01
      1.46594009e+02 4.30517693e+01 1.60762939e+02 4.79564018e+01
      1.67302444e+02 6.15803795e+01 1.04087189e+02 7.57493210e+01
      1.03542229e+02 8.99182510e+01 1.02452316e+02 1.04087189e+02
      1.01907356e+02 1.18256126e+02 8.50136185e+01 1.32425064e+02
      9.31880112e+01 1.34604904e+02 1.00817436e+02 1.36784744e+02
      1.09536781e+02 1.35149857e+02 1.17711166e+02 1.32425064e+02
      5.66757469e+01 7.95640335e+01 6.53950958e+01 7.73841934e+01
      7.41144409e+01 7.84741135e+01 8.22888260e+01 8.22888260e+01
      7.30245209e+01 8.39237061e+01 6.43051758e+01 8.28337860e+01
      1.25885559e+02 8.39237061e+01 1.35149857e+02 8.01089935e+01
      1.43324249e+02 8.01089935e+01 1.50953674e+02 8.33787460e+01
      1.43324249e+02 8.61035385e+01 1.34604904e+02 8.61035385e+01
      7.13896408e+01 1.59128067e+02 8.28337860e+01 1.54223434e+02
      9.31880112e+01 1.51498642e+02 1.00272476e+02 1.54223434e+02
      1.07901909e+02 1.52588547e+02 1.16621254e+02 1.55313354e+02
      1.26975471e+02 1.60762939e+02 1.15531334e+02 1.67302444e+02
      1.06811989e+02 1.68937332e+02 9.86376038e+01 1.69482285e+02
      9.04632111e+01 1.68392365e+02 8.17438660e+01 1.65122620e+02
      7.57493210e+01 1.59128067e+02 9.20980911e+01 1.59128067e+02
      1.00272476e+02 1.60217987e+02 1.07356949e+02 1.59673019e+02
      1.22615799e+02 1.60762939e+02 1.07356949e+02 1.60217987e+02
      9.97275162e+01 1.60762939e+02 9.15531311e+01 1.59673019e+02</_>
    <_>
      2.81437130e+01 9.04191666e+01 2.87425156e+01 1.08383240e+02
      2.99401207e+01 1.27544914e+02 3.41317368e+01 1.45508987e+02
      4.31137733e+01 1.62275452e+02 5.68862305e+01 1.77844315e+02
      7.36526947e+01 1.89221558e+02 9.10179672e+01 1.98802399e+02
      1.10179642e+02 2.00598801e+02 1.28742523e+02 1.96407196e+02
      1.46107788e+02 1.84431137e+02 1.61077850e+02 1.71257492e+02
      1.72455093e+02 1.53293411e+02 1.78443115e+02 1.33532944e+02
      1.82035934e+02 1.14371262e+02 1.83832336e+02 9.40119781e+01
      1.83233536e+02 7.42514954e+01 4.25149727e+01 6.40718613e+01
      4.79041939e+01 5.20958099e+01 5.98802414e+01 4.79041939e+01
      7.30538940e+01 4.85029945e+01 8.50299454e+01 5.44910202e+01
      1.11976051e+02 5.20958099e+01 1.23952103e+02 4.37125778e+01
      1.38323364e+02 4.01197624e+01 1.52694611e+02 4.37125778e+01
      1.62275452e+02 5.50898209e+01 9.94011993e+01 7.60479050e+01
      9.94011993e+01 9.10179672e+01 100. 1.04790421e+02 1.00598808e+02
      1.19161682e+02 8.86227570e+01 1.32335327e+02 9.58083878e+01
      1.34131744e+02 1.03592819e+02 1.35928146e+02 1.11377251e+02
      1.32934128e+02 1.19161682e+02 1.29341324e+02 5.68862305e+01
      8.50299454e+01 6.34730568e+01 8.08383255e+01 7.18562927e+01
      8.08383255e+01 8.08383255e+01 8.44311371e+01 7.24550934e+01
      8.74251556e+01 6.40718613e+01 8.80239563e+01 1.21556892e+02
      8.08383255e+01 1.29341324e+02 7.54491043e+01 1.38323364e+02
      7.42514954e+01 1.46107788e+02 7.66467056e+01 1.39520966e+02
      8.02395248e+01 1.30538925e+02 8.14371262e+01 7.84431152e+01
      1.58083832e+02 8.86227570e+01 1.53892212e+02 9.70059891e+01
      1.50299408e+02 1.04790421e+02 1.52095810e+02 1.11976051e+02
      1.49700607e+02 1.21556892e+02 1.50898209e+02 1.33532944e+02
      1.53892212e+02 1.22754494e+02 1.61676651e+02 1.13772461e+02
      1.65269470e+02 1.05988029e+02 1.66467072e+02 9.76047897e+01
      1.66467072e+02 8.86227570e+01 1.64071854e+02 8.20359268e+01
      1.58083832e+02 9.76047897e+01 1.56886230e+02 1.05389221e+02
      1.57485031e+02 1.12574852e+02 1.55688629e+02 1.29341324e+02
      1.54491028e+02 1.12574852e+02 1.56886230e+02 1.05389221e+02
      1.58083832e+02 9.76047897e+01 1.58083832e+02</_>
    <_>
      2.17142849e+01 8.45714264e+01 2.17142849e+01 1.04571426e+02
      2.34285717e+01 1.25714287e+02 28. 1.45714279e+02 36. 164.
      4.85714302e+01 1.81714279e+02 6.45714264e+01 1.94857147e+02
      8.17142868e+01 2.05714279e+02 1.01714287e+02 2.08571426e+02
      1.21714287e+02 2.05142853e+02 140. 1.93714279e+02 1.55428574e+02
      1.81142853e+02 168. 1.64571426e+02 1.74857147e+02 1.44571426e+02
      180. 1.23428574e+02 184. 1.01714287e+02 1.84571426e+02
      8.05714264e+01 4.11428566e+01 5.77142868e+01 4.85714302e+01
      4.68571434e+01 6.11428566e+01 4.34285698e+01 7.48571396e+01
      4.51428566e+01 8.68571396e+01 5.31428566e+01 1.15428574e+02
      5.25714302e+01 1.28571426e+02 4.45714302e+01 1.42857147e+02
      4.17142868e+01 1.57142853e+02 4.62857132e+01 1.65142853e+02
      5.82857132e+01 100. 7.65714264e+01 100. 9.14285736e+01 100.
      1.06285713e+02 9.94285736e+01 1.21142860e+02 8.45714264e+01
      1.33714279e+02 9.25714264e+01 136. 100. 1.38285721e+02
      1.09142860e+02 1.35428574e+02 1.16571426e+02 1.33142853e+02
      5.48571434e+01 8.28571396e+01 6.22857132e+01 80. 7.08571396e+01
      80. 80. 84. 7.08571396e+01 8.57142868e+01 6.22857132e+01
      8.57142868e+01 1.22285713e+02 8.28571396e+01 1.30857147e+02
      7.88571396e+01 140. 7.82857132e+01 148. 8.11428604e+01
      1.40571426e+02 84. 1.31428574e+02 8.45714264e+01 72. 160.
      8.28571396e+01 156. 9.25714264e+01 1.53714279e+02 100. 156. 108.
      1.54285721e+02 1.17714287e+02 156. 1.29714279e+02 1.60571426e+02
      1.17142860e+02 168. 1.07428574e+02 1.70857147e+02 9.94285736e+01
      1.71428574e+02 9.14285736e+01 1.70285721e+02 8.22857132e+01
      1.66857147e+02 76. 160. 9.25714264e+01 1.60571426e+02 100.
      1.61714279e+02 108. 1.60571426e+02 1.25142860e+02 1.61142853e+02
      1.07428574e+02 1.61142853e+02 100. 1.62285721e+02 92.
      1.61142853e+02</_>
    <_>
      1.99460907e+01 8.57142868e+01 1.88679237e+01 1.06738541e+02
      1.88679237e+01 1.28301880e+02 2.31805935e+01 1.49326141e+02
      3.12668457e+01 1.69272232e+02 4.58221016e+01 1.87601074e+02
      6.25336914e+01 2.03773590e+02 8.24797821e+01 2.17250671e+02
      1.04582207e+02 2.21563339e+02 1.27223717e+02 2.16711594e+02
      1.47169815e+02 2.02156326e+02 1.64420486e+02 1.85444748e+02
      1.77358490e+02 1.66576813e+02 1.85444748e+02 1.46091644e+02
      1.89218323e+02 1.23989220e+02 1.90296494e+02 1.01347710e+02
      1.89757416e+02 7.87061996e+01 3.77358475e+01 5.92991905e+01
      4.52830200e+01 4.79784355e+01 5.82210236e+01 4.52830200e+01
      7.22371979e+01 4.74393539e+01 8.51752014e+01 5.44474373e+01
      1.12668465e+02 5.22911034e+01 1.26145554e+02 4.47439346e+01
      1.41239883e+02 4.20485153e+01 1.55795151e+02 4.52830200e+01
      1.64420486e+02 5.66037712e+01 9.81132050e+01 7.60107803e+01
      9.75741196e+01 9.21832886e+01 9.75741196e+01 1.07816711e+02
      9.70350418e+01 1.24528297e+02 8.08625336e+01 1.33692719e+02
      8.94878693e+01 1.36927216e+02 9.91913757e+01 1.40161728e+02
      1.09433960e+02 1.36388138e+02 1.19137466e+02 1.32075470e+02
      5.22911034e+01 8.19406967e+01 6.03773575e+01 7.92452850e+01
      6.90026932e+01 7.92452850e+01 7.97843628e+01 8.30188675e+01
      6.95417786e+01 8.35579529e+01 6.03773575e+01 8.35579529e+01
      1.20754715e+02 8.08625336e+01 1.29919144e+02 7.60107803e+01
      1.39622635e+02 7.54716949e+01 1.49865234e+02 7.81671143e+01
      1.40161728e+02 7.97843628e+01 1.30458221e+02 8.03234482e+01
      6.52291107e+01 1.56334229e+02 7.65498657e+01 1.52560638e+02
      8.94878693e+01 1.50404312e+02 9.97304535e+01 1.52560638e+02
      1.09973045e+02 1.50404312e+02 1.23989220e+02 1.51482483e+02
      1.39083557e+02 1.55795151e+02 1.25067383e+02 1.73045822e+02
      1.11051208e+02 1.80053909e+02 1.00269539e+02 1.81671158e+02
      8.84097061e+01 1.80053909e+02 7.60107803e+01 1.72506744e+02
      6.95417786e+01 1.57412399e+02 8.94878693e+01 1.56334229e+02
      1.00269539e+02 1.57412399e+02 1.09973045e+02 1.55795151e+02
      1.34770889e+02 1.57412399e+02 1.10512131e+02 1.69811325e+02
      1.00269539e+02 1.70889481e+02 8.89487839e+01 1.69811325e+02</_>
    <_>
      1.99445992e+01 8.97506943e+01 1.82825489e+01 1.10249313e+02
      1.77285328e+01 1.31855957e+02 2.21606655e+01 1.52354568e+02
      3.10249310e+01 1.72853195e+02 4.48753471e+01 1.91689758e+02
      6.09418297e+01 2.09972305e+02 7.92243805e+01 2.24930756e+02
      1.01385048e+02 2.30470917e+02 1.24099724e+02 2.26592804e+02
      1.44598343e+02 2.12188370e+02 1.62326874e+02 1.95013855e+02
      1.76177292e+02 1.74515244e+02 1.84487534e+02 1.52908585e+02
      1.90581726e+02 1.31301941e+02 1.92243774e+02 1.08033241e+02
      1.91689758e+02 8.47645416e+01 3.49030495e+01 6.98060989e+01
      3.93351822e+01 5.37396126e+01 5.37396126e+01 4.59833794e+01
      6.98060989e+01 4.70914154e+01 8.42105255e+01 5.42936287e+01
      1.09141281e+02 5.31855965e+01 1.25761780e+02 4.54293633e+01
      1.44044327e+02 4.37673149e+01 1.60664825e+02 5.26315804e+01
      1.69529083e+02 6.98060989e+01 9.52908630e+01 7.64542923e+01
      9.52908630e+01 9.25207748e+01 9.47368469e+01 1.08033241e+02
      9.41828308e+01 1.24099724e+02 7.70083160e+01 1.34626038e+02
      8.64265976e+01 1.37950150e+02 9.58448792e+01 1.41274246e+02
      1.06925209e+02 1.37396133e+02 1.16897507e+02 1.33518005e+02
      5.04155121e+01 8.31024933e+01 5.87257652e+01 7.92243805e+01
      6.75900269e+01 7.86703644e+01 7.81163483e+01 8.36565094e+01
      6.75900269e+01 8.36565094e+01 5.81717453e+01 8.42105255e+01
      1.19667595e+02 8.25484772e+01 1.30193909e+02 7.75623322e+01
      1.39612198e+02 7.75623322e+01 1.49584488e+02 8.14404449e+01
      1.39612198e+02 8.19944611e+01 1.29639893e+02 8.25484772e+01
      6.26038818e+01 1.60110809e+02 7.36842117e+01 1.55124664e+02
      8.69806137e+01 1.52908585e+02 9.69529114e+01 1.55124664e+02
      1.06925209e+02 1.52908585e+02 1.22437675e+02 1.55124664e+02
      1.37950150e+02 1.61218842e+02 1.23545708e+02 1.81717453e+02
      1.08587257e+02 1.89473694e+02 9.75069275e+01 1.90581726e+02
      8.58725815e+01 1.88919678e+02 7.31301956e+01 1.79501389e+02
      6.75900269e+01 1.61772858e+02 8.69806137e+01 1.58448761e+02
      9.75069275e+01 1.59556793e+02 1.07479225e+02 1.59002777e+02
      1.32963989e+02 1.62326874e+02 1.08033241e+02 1.78947372e+02
      9.75069275e+01 1.79501389e+02 8.58725815e+01 1.77285324e+02</_>
    <_>
      1.87667561e+01 7.45308304e+01 1.76943703e+01 9.54423599e+01
      1.60857906e+01 1.17962463e+02 1.87667561e+01 1.40482574e+02
      2.73458443e+01 1.60857910e+02 4.12868614e+01 1.79088470e+02
      5.63002663e+01 1.96246643e+02 7.29222488e+01 2.11260056e+02
      9.32975845e+01 2.16621979e+02 1.14745308e+02 2.13404831e+02
      1.34584442e+02 1.99463806e+02 1.51742630e+02 1.84450394e+02
      1.66756027e+02 1.66756027e+02 1.76407501e+02 1.46916885e+02
      1.82305634e+02 1.25469170e+02 1.84986588e+02 1.02949059e+02
      1.86058975e+02 8.09651489e+01 3.91420898e+01 5.30831108e+01
      4.61125984e+01 4.28954430e+01 5.95174255e+01 4.07506714e+01
      7.29222488e+01 4.39678268e+01 8.52546921e+01 5.14745293e+01
      1.15817696e+02 5.30831108e+01 1.29758713e+02 4.61125984e+01
      1.44772110e+02 4.39678268e+01 1.59249329e+02 4.82573738e+01
      1.66756027e+02 6.16621971e+01 9.86595154e+01 7.56032181e+01
      9.70509415e+01 9.22251968e+01 9.49061661e+01 1.08310989e+02
      9.32975845e+01 1.24932976e+02 7.66756058e+01 1.31903488e+02
      8.52546921e+01 1.35656830e+02 9.43699722e+01 1.39410187e+02
      1.04557640e+02 1.36729218e+02 1.14745308e+02 1.33512070e+02
      5.20107231e+01 7.61394119e+01 6.11260033e+01 7.34584427e+01
      6.97050934e+01 7.50670242e+01 7.82841797e+01 8.04289551e+01
      6.86327057e+01 7.98927612e+01 5.95174255e+01 7.88203735e+01
      1.22252007e+02 8.20375366e+01 1.32439682e+02 7.77479858e+01
      1.41018768e+02 7.72117996e+01 1.50134048e+02 8.04289551e+01
      1.41018768e+02 8.20375366e+01 1.31903488e+02 8.25737228e+01
      5.95174255e+01 1.48525467e+02 7.13136749e+01 1.49061661e+02
      8.52546921e+01 1.49061661e+02 9.49061661e+01 1.51742630e+02
      1.05093834e+02 1.50134048e+02 1.19034851e+02 1.51742630e+02
      1.33512070e+02 1.53351212e+02 1.19034851e+02 1.71045578e+02
      1.04557640e+02 1.77479889e+02 9.32975845e+01 1.78016083e+02
      8.20375366e+01 1.75871307e+02 6.91688995e+01 1.66219833e+02
      6.32707787e+01 1.50670242e+02 8.47184982e+01 1.54423599e+02
      9.49061661e+01 1.56568359e+02 1.05093834e+02 1.56032166e+02
      1.28686325e+02 1.54959778e+02 1.04557640e+02 1.66756027e+02
      9.43699722e+01 1.67292221e+02 8.31099167e+01 1.65147446e+02</_>
    <_>
      2.27722778e+01 7.87128754e+01 2.07920799e+01 9.95049515e+01
      2.07920799e+01 1.20792084e+02 2.42574253e+01 1.41584152e+02
      3.11881199e+01 1.60396042e+02 4.30693092e+01 1.78712875e+02
      5.64356422e+01 1.93564362e+02 7.22772293e+01 2.05940598e+02
      9.15841599e+01 2.10396042e+02 1.12871284e+02 2.08415848e+02
      1.34158417e+02 1.98019806e+02 1.51980194e+02 1.84653473e+02
      1.65841583e+02 1.66831680e+02 1.74752472e+02 1.47029709e+02
      1.80693069e+02 1.26732674e+02 1.85148514e+02 1.04950493e+02
      1.87128708e+02 8.26732712e+01 3.76237640e+01 5.59405937e+01
      4.50495071e+01 4.50495071e+01 5.84158440e+01 4.25742569e+01
      7.17821808e+01 4.60396042e+01 8.41584167e+01 5.44554443e+01
      1.15346535e+02 5.49504967e+01 1.29207916e+02 4.80198021e+01
      1.45049500e+02 4.60396042e+01 1.59405945e+02 5.09901009e+01
      1.67326736e+02 6.43564377e+01 9.75247498e+01 7.82178192e+01
      9.60396042e+01 9.45544586e+01 9.40594101e+01 1.10396042e+02
      9.25742569e+01 1.26732674e+02 7.57425766e+01 1.33663361e+02
      8.41584167e+01 1.37623764e+02 9.25742569e+01 1.41089111e+02
      1.02475250e+02 1.38613861e+02 1.12376236e+02 1.36138611e+02
      5.14851494e+01 7.87128754e+01 5.99009895e+01 7.67326736e+01
      6.88118820e+01 7.77227707e+01 7.82178192e+01 8.31683197e+01
      6.78217850e+01 8.31683197e+01 5.89108925e+01 8.21782150e+01
      1.20792084e+02 8.41584167e+01 1.30198029e+02 7.92079239e+01
      1.39603958e+02 7.92079239e+01 1.49009903e+02 8.21782150e+01
      1.40099014e+02 8.46534653e+01 1.30198029e+02 8.51485138e+01
      6.08910904e+01 1.51485153e+02 7.17821808e+01 1.51980194e+02
      8.21782150e+01 1.52475250e+02 9.05940628e+01 1.55445541e+02
      9.90099030e+01 1.53960403e+02 1.10891090e+02 1.55940598e+02
      1.25742577e+02 1.58910889e+02 1.09405945e+02 1.66831680e+02
      9.75247498e+01 1.69306931e+02 8.86138611e+01 1.69306931e+02
      7.92079239e+01 1.66831680e+02 7.02970276e+01 1.60891098e+02
      6.48514862e+01 1.52475250e+02 8.21782150e+01 1.56930695e+02
      9.05940628e+01 1.59900986e+02 9.90099030e+01 1.59405945e+02
      1.20297028e+02 1.59405945e+02 9.80198059e+01 1.60396042e+02
      8.96039581e+01 1.60396042e+02 8.06930695e+01 1.58415848e+02</_>
    <_>
      1.86170216e+01 8.77659607e+01 1.86170216e+01 1.09042557e+02
      2.02127666e+01 1.29787231e+02 2.44680843e+01 150. 3.24468079e+01
      1.68617020e+02 4.52127647e+01 1.86170212e+02 6.11702118e+01
      2.00531921e+02 7.87234039e+01 2.12234039e+02 9.89361725e+01
      2.15425537e+02 1.20212769e+02 2.12765961e+02 1.38829788e+02
      2.01595749e+02 1.54255325e+02 1.89361710e+02 1.66489365e+02
      1.72340424e+02 1.73936172e+02 1.53191483e+02 1.78723404e+02
      1.32978729e+02 1.81382980e+02 1.11170212e+02 1.81382980e+02
      9.04255295e+01 3.88297882e+01 6.54255295e+01 4.68085098e+01
      5.37234039e+01 6.06382980e+01 4.94680862e+01 7.55319138e+01
      5.10638313e+01 8.93617020e+01 5.74468079e+01 1.13297874e+02
      5.63829803e+01 1.27127663e+02 50. 1.42553192e+02 4.84042549e+01
      1.56382980e+02 5.42553177e+01 1.64361710e+02 6.80851059e+01 100.
      7.92553177e+01 9.94680862e+01 9.41489334e+01 9.89361725e+01
      1.07978722e+02 9.84042587e+01 1.22872337e+02 8.19148941e+01
      1.36702133e+02 9.04255295e+01 1.38829788e+02 9.89361725e+01
      1.40425537e+02 1.08510635e+02 1.38297867e+02 1.16489365e+02
      1.36170212e+02 5.26595764e+01 8.67021255e+01 6.06382980e+01
      8.35106354e+01 6.91489334e+01 8.35106354e+01 7.92553177e+01
      8.72340393e+01 6.96808548e+01 8.88297882e+01 6.06382980e+01
      8.93617020e+01 1.20744682e+02 8.72340393e+01 1.30319153e+02
      8.29787216e+01 1.38829788e+02 8.29787216e+01 1.47872345e+02
      8.61702118e+01 1.39361710e+02 8.82978745e+01 1.29787231e+02
      8.82978745e+01 6.86170197e+01 1.63829788e+02 7.92553177e+01
      1.55851059e+02 8.98936157e+01 1.52659576e+02 9.84042587e+01
      1.54787231e+02 1.06914894e+02 1.53191483e+02 1.17553192e+02
      1.56914886e+02 1.29787231e+02 1.63829788e+02 1.18085106e+02
      1.69680847e+02 1.07978722e+02 1.71808517e+02 9.89361725e+01
      1.72340424e+02 8.93617020e+01 1.71276596e+02 7.92553177e+01
      1.68085114e+02 7.34042587e+01 1.62234039e+02 8.98936157e+01
      1.60106384e+02 9.89361725e+01 1.61702133e+02 1.07446808e+02
      1.60638306e+02 125. 1.63297867e+02 1.07978722e+02 1.61702133e+02
      9.89361725e+01 1.62234039e+02 8.98936157e+01 1.60638306e+02</_>
    <_>
      2.09115276e+01 8.36461105e+01 2.03753357e+01 1.04557640e+02
      2.14477215e+01 1.26541557e+02 2.46648788e+01 1.46916885e+02
      3.21715813e+01 1.66219833e+02 4.45040207e+01 1.83914215e+02
      5.89812317e+01 1.97855225e+02 7.56032181e+01 2.09115280e+02
      9.59785538e+01 2.12332443e+02 1.17962463e+02 2.10723862e+02
      1.38337799e+02 2.01072388e+02 1.54959778e+02 1.88203751e+02
      1.67828415e+02 1.70509384e+02 1.75335114e+02 1.49597855e+02
      1.79624664e+02 1.28686325e+02 1.82305634e+02 1.06166222e+02
      1.82841827e+02 8.47184982e+01 3.91420898e+01 6.00536194e+01
      4.55764084e+01 4.66487923e+01 5.95174255e+01 4.18230553e+01
      7.45308304e+01 4.34316368e+01 8.84718475e+01 5.04021454e+01
      1.14745308e+02 5.09383392e+01 1.29222519e+02 4.45040207e+01
      1.44772110e+02 4.34316368e+01 1.59785522e+02 4.93297577e+01
      1.67292221e+02 6.43431625e+01 9.97319031e+01 7.50670242e+01
      9.91957092e+01 9.00804291e+01 9.86595154e+01 1.04021446e+02
      9.81233215e+01 1.19034851e+02 8.25737228e+01 1.31903488e+02
      9.06166229e+01 1.34048264e+02 9.86595154e+01 1.36193024e+02
      1.07774796e+02 1.34048264e+02 1.16353889e+02 1.31903488e+02
      5.41554947e+01 8.20375366e+01 6.16621971e+01 7.93565674e+01
      7.07774811e+01 7.93565674e+01 8.04289551e+01 8.31099167e+01
      7.07774811e+01 8.52546921e+01 6.16621971e+01 8.52546921e+01
      1.22252007e+02 8.36461105e+01 1.32439682e+02 7.93565674e+01
      1.42091156e+02 7.93565674e+01 1.51206436e+02 8.25737228e+01
      1.42627350e+02 8.57908859e+01 1.31903488e+02 8.57908859e+01
      6.91688995e+01 1.59785522e+02 7.98927612e+01 1.51742630e+02
      9.00804291e+01 1.48525467e+02 9.86595154e+01 1.50670242e+02
      1.07238602e+02 1.49061661e+02 1.17426270e+02 1.53351212e+02
      1.28686325e+02 1.61394104e+02 1.16353889e+02 1.65683640e+02
      1.06166222e+02 1.66756027e+02 9.75871277e+01 1.67292221e+02
      8.79356537e+01 1.65683640e+02 7.88203735e+01 1.63002686e+02
      7.39946365e+01 1.58176941e+02 8.95442352e+01 1.54959778e+02
      9.86595154e+01 1.57104553e+02 1.06702415e+02 1.56568359e+02
      1.23860588e+02 1.60321716e+02 1.06166222e+02 1.57104553e+02
      9.81233215e+01 1.57640747e+02 8.84718475e+01 1.56032166e+02</_>
    <_>
      1.76943703e+01 8.04289551e+01 1.66219845e+01 1.01876678e+02
      1.76943703e+01 1.24396782e+02 2.19839134e+01 1.45844498e+02
      3.00268097e+01 1.64611252e+02 4.23592491e+01 1.82841827e+02
      5.73726540e+01 1.97855225e+02 7.34584427e+01 2.10187668e+02
      9.43699722e+01 2.14477203e+02 1.15817696e+02 2.12332443e+02
      1.35120636e+02 2.01072388e+02 1.52278824e+02 1.87131363e+02
      1.66219833e+02 1.68900803e+02 1.74798920e+02 1.47989273e+02
      1.80160858e+02 1.26541557e+02 1.83378021e+02 1.04557640e+02
      1.83378021e+02 8.36461105e+01 3.43163528e+01 5.73726540e+01
      4.23592491e+01 4.50402145e+01 5.68364601e+01 4.07506714e+01
      7.23860550e+01 4.23592491e+01 8.73994598e+01 4.82573738e+01
      1.12064346e+02 4.87935638e+01 1.27077744e+02 4.23592491e+01
      1.43699738e+02 4.12868614e+01 1.58713135e+02 4.71849861e+01
      1.66219833e+02 6.21983910e+01 9.75871277e+01 7.29222488e+01
      9.65147476e+01 8.79356537e+01 9.54423599e+01 1.02412865e+02
      9.43699722e+01 1.17426270e+02 7.45308304e+01 1.28150131e+02
      8.36461105e+01 1.32975876e+02 9.38337784e+01 1.37265411e+02
      1.05093834e+02 1.34048264e+02 1.14745308e+02 1.30831100e+02
      4.82573738e+01 7.77479858e+01 5.68364601e+01 7.50670242e+01
      6.75603180e+01 7.56032181e+01 7.72117996e+01 7.93565674e+01
      6.70241318e+01 8.20375366e+01 5.63002663e+01 8.15013428e+01
      1.19571045e+02 8.15013428e+01 1.30831100e+02 7.77479858e+01
      1.41018768e+02 7.88203735e+01 1.50134048e+02 8.25737228e+01
      1.41018768e+02 8.52546921e+01 1.29758713e+02 8.47184982e+01
      6.32707787e+01 1.59785522e+02 7.50670242e+01 1.53887405e+02
      8.52546921e+01 1.51206436e+02 9.38337784e+01 1.54423599e+02
      1.02949059e+02 1.51742630e+02 1.13672920e+02 1.56032166e+02
      1.27077744e+02 1.62466492e+02 1.14209114e+02 1.69973190e+02
      1.02949059e+02 1.72654160e+02 9.38337784e+01 1.73190353e+02
      8.41823044e+01 1.71581772e+02 7.39946365e+01 1.67828415e+02
      6.86327057e+01 1.60321716e+02 8.47184982e+01 1.59249329e+02
      9.38337784e+01 1.60857910e+02 1.02949059e+02 1.60321716e+02
      1.21179626e+02 1.62466492e+02 1.02949059e+02 1.61394104e+02
      9.43699722e+01 1.61930298e+02 8.47184982e+01 1.60857910e+02</_></uncompressed_support_vectors>
  <decision_functions>
    <_>
      <sv_count>1</sv_count>
      <rho>2.4601232180138055e+00</rho>
      <alpha>
        1.</alpha>
      <index>
        0</index></_>
    <_>
      <sv_count>1</sv_count>
      <rho>-1.1223088050522218e+01</rho>
      <alpha>
        1.</alpha>
      <index>
        1</index></_>
    <_>
      <sv_count>1</sv_count>
      <rho>6.5237064511281044e+00</rho>
      <alpha>
        1.</alpha>
      <index>
        2</index></_></decision_functions></opencv_ml_svm>
</opencv_storage>
